<?xml version="1.0"?>
<opencv_storage>
<cascade>
  <stageType>BOOST</stageType>
  <featureType>HAAR</featureType>
  <height>24</height>
  <width>24</width>
  <stageParams>
    <boostType>GAB</boostType>
    <minHitRate>9.9500000476837158e-01</minHitRate>
    <maxFalseAlarm>5.0000000000000000e-01</maxFalseAlarm>
    <weightTrimRate>9.4999998807907104e-01</weightTrimRate>
    <maxDepth>1</maxDepth>
    <maxWeakCount>100</maxWeakCount></stageParams>
  <featureParams>
    <maxCatCount>0</maxCatCount>
    <featSize>1</featSize>
    <mode>BASIC</mode></featureParams>
  <stageNum>16</stageNum>
  <stages>
    <!-- stage 0 -->
    <_>
      <maxWeakCount>3</maxWeakCount>
      <stageThreshold>-1.2193552255630493e+00</stageThreshold>
      <weakClassifiers>
        <_>
          <internalNodes>
            0 -1 2 -4.6582069993019104e-01</internalNodes>
          <leafValues>
            5.6603771448135376e-01 -9.5204794406890869e-01</leafValues></_>
        <_>
          <internalNodes>
            0 -1 83 3.2287385314702988e-02</internalNodes>
          <leafValues>
            -8.5806721448898315e-01 3.9485251903533936e-01</leafValues></_>
        <_>
          <internalNodes>
            0 -1 75 -1.0643012821674347e-02</internalNodes>
          <leafValues>
            5.9822261333465576e-01 -6.6215974092483521e-01</leafValues></_></weakClassifiers></_>
    <!-- stage 1 -->
    <_>
      <maxWeakCount>6</maxWeakCount>
      <stageThreshold>-2.4175629615783691e+00</stageThreshold>
      <weakClassifiers>
        <_>
          <internalNodes>
            0 -1 7 -5.2573966979980469e-01</internalNodes>
          <leafValues>
            -5.0632912665605545e-02 -9.3256056308746338e-01</leafValues></_>
        <_>
          <internalNodes>
            0 -1 12 -7.8049972653388977e-02</internalNodes>
          <leafValues>
            1.8140937387943268e-01 -8.3492434024810791e-01</leafValues></_>
        <_>
          <internalNodes>
            0 -1 43 2.9086746275424957e-02</internalNodes>
          <leafValues>
            -6.2597972154617310e-01 4.4967919588088989e-01</leafValues></_>
        <_>
          <internalNodes>
            0 -1 38 -1.3679710216820240e-02</internalNodes>
          <leafValues>
            4.1970175504684448e-01 -6.2362962961196899e-01</leafValues></_>
        <_>
          <internalNodes>
            0 -1 92 -3.8114085327833891e-05</internalNodes>
          <leafValues>
            -9.0749490261077881e-01 3.0080032348632813e-01</leafValues></_>
        <_>
          <internalNodes>
            0 -1 92 8.2898215623572469e-04</internalNodes>
          <leafValues>
            2.9873096942901611e-01 -8.7437015771865845e-01</leafValues></_></weakClassifiers></_>
    <!-- stage 2 -->
    <_>
      <maxWeakCount>5</maxWeakCount>
      <stageThreshold>-1.5804001092910767e+00</stageThreshold>
      <weakClassifiers>
        <_>
          <internalNodes>
            0 -1 66 -4.9116738140583038e-02</internalNodes>
          <leafValues>
            7.1428574621677399e-02 -9.0552765130996704e-01</leafValues></_>
        <_>
          <internalNodes>
            0 -1 79 -1.0667216777801514e-01</internalNodes>
          <leafValues>
            2.1035118401050568e-01 -7.8506124019622803e-01</leafValues></_>
        <_>
          <internalNodes>
            0 -1 1 -1.5826594829559326e-01</internalNodes>
          <leafValues>
            4.0036776661872864e-01 -6.5078169107437134e-01</leafValues></_>
        <_>
          <internalNodes>
            0 -1 60 -1.0139554738998413e-02</internalNodes>
          <leafValues>
            5.3097444772720337e-01 -5.5409675836563110e-01</leafValues></_>
        <_>
          <internalNodes>
            0 -1 94 -9.3938731879461557e-05</internalNodes>
          <leafValues>
            -9.7801256179809570e-01 2.6391771435737610e-01</leafValues></_></weakClassifiers></_>
    <!-- stage 3 -->
    <_>
      <maxWeakCount>5</maxWeakCount>
      <stageThreshold>-1.3651336431503296e+00</stageThreshold>
      <weakClassifiers>
        <_>
          <internalNodes>
            0 -1 36 -8.4275275468826294e-02</internalNodes>
          <leafValues>
            1.1666666716337204e-01 -9.1894632577896118e-01</leafValues></_>
        <_>
          <internalNodes>
            0 -1 29 1.0546198487281799e-01</internalNodes>
          <leafValues>
            -7.6199102401733398e-01 3.0963093042373657e-01</leafValues></_>
        <_>
          <internalNodes>
            0 -1 53 -2.0290501415729523e-02</internalNodes>
          <leafValues>
            6.3017237186431885e-01 -4.6901497244834900e-01</leafValues></_>
        <_>
          <internalNodes>
            0 -1 100 -1.3841933650837746e-05</internalNodes>
          <leafValues>
            -8.6953967809677124e-01 2.9410138726234436e-01</leafValues></_>
        <_>
          <internalNodes>
            0 -1 73 -5.3144060075283051e-04</internalNodes>
          <leafValues>
            5.5517101287841797e-01 -4.7568941116333008e-01</leafValues></_></weakClassifiers></_>
    <!-- stage 4 -->
    <_>
      <maxWeakCount>6</maxWeakCount>
      <stageThreshold>-1.6786084175109863e+00</stageThreshold>
      <weakClassifiers>
        <_>
          <internalNodes>
            0 -1 70 1.8619814515113831e-01</internalNodes>
          <leafValues>
            -9.3033707141876221e-01 -2.9953917860984802e-01</leafValues></_>
        <_>
          <internalNodes>
            0 -1 54 -4.3677017092704773e-02</internalNodes>
          <leafValues>
            9.8982937633991241e-02 -7.1990710496902466e-01</leafValues></_>
        <_>
          <internalNodes>
            0 -1 95 1.2490995868574828e-04</internalNodes>
          <leafValues>
            2.5860178470611572e-01 -6.4117610454559326e-01</leafValues></_>
        <_>
          <internalNodes>
            0 -1 26 -2.1628830290865153e-04</internalNodes>
          <leafValues>
            -8.9252609014511108e-01 1.8319353461265564e-01</leafValues></_>
        <_>
          <internalNodes>
            0 -1 56 6.5434287535026670e-05</internalNodes>
          <leafValues>
            -4.7023981809616089e-01 4.3938067555427551e-01</leafValues></_>
        <_>
          <internalNodes>
            0 -1 101 3.3964455360546708e-04</internalNodes>
          <leafValues>
            2.6906034350395203e-01 -8.1352013349533081e-01</leafValues></_></weakClassifiers></_>
    <!-- stage 5 -->
    <_>
      <maxWeakCount>5</maxWeakCount>
      <stageThreshold>-1.7291179895401001e+00</stageThreshold>
      <weakClassifiers>
        <_>
          <internalNodes>
            0 -1 71 2.6131349802017212e-01</internalNodes>
          <leafValues>
            -9.1044777631759644e-01 -2.3076923191547394e-01</leafValues></_>
        <_>
          <internalNodes>
            0 -1 49 2.5179084390401840e-02</internalNodes>
          <leafValues>
            -6.6940826177597046e-01 2.2333751618862152e-01</leafValues></_>
        <_>
          <internalNodes>
            0 -1 93 -6.7761153331957757e-05</internalNodes>
          <leafValues>
            -1. 1.4582142233848572e-01</leafValues></_>
        <_>
          <internalNodes>
            0 -1 17 6.9339192123152316e-05</internalNodes>
          <leafValues>
            1.8890130519866943e-01 -8.9715546369552612e-01</leafValues></_>
        <_>
          <internalNodes>
            0 -1 81 -1.3032797141931951e-05</internalNodes>
          <leafValues>
            3.9843064546585083e-01 -4.8398467898368835e-01</leafValues></_></weakClassifiers></_>
    <!-- stage 6 -->
    <_>
      <maxWeakCount>6</maxWeakCount>
      <stageThreshold>-1.5408118963241577e+00</stageThreshold>
      <weakClassifiers>
        <_>
          <internalNodes>
            0 -1 88 -2.6599219068884850e-02</internalNodes>
          <leafValues>
            -5.7471264153718948e-02 -8.7058824300765991e-01</leafValues></_>
        <_>
          <internalNodes>
            0 -1 67 2.5632899999618530e-01</internalNodes>
          <leafValues>
            -7.1658849716186523e-01 1.7923958599567413e-01</leafValues></_>
        <_>
          <internalNodes>
            0 -1 14 -7.7852382673881948e-05</internalNodes>
          <leafValues>
            -8.6208206415176392e-01 2.0154519379138947e-01</leafValues></_>
        <_>
          <internalNodes>
            0 -1 59 2.4676609784364700e-02</internalNodes>
          <leafValues>
            -4.2038893699645996e-01 5.3168559074401855e-01</leafValues></_>
        <_>
          <internalNodes>
            0 -1 40 -7.2910580784082413e-03</internalNodes>
          <leafValues>
            6.4230543375015259e-01 -3.0733433365821838e-01</leafValues></_>
        <_>
          <internalNodes>
            0 -1 33 -1.2382544577121735e-02</internalNodes>
          <leafValues>
            7.5785368680953979e-01 -2.0929771661758423e-01</leafValues></_></weakClassifiers></_>
    <!-- stage 7 -->
    <_>
      <maxWeakCount>6</maxWeakCount>
      <stageThreshold>-1.9095057249069214e+00</stageThreshold>
      <weakClassifiers>
        <_>
          <internalNodes>
            0 -1 13 -1.3137459754943848e-01</internalNodes>
          <leafValues>
            4.0740740299224854e-01 -8.3703702688217163e-01</leafValues></_>
        <_>
          <internalNodes>
            0 -1 8 -5.2203088998794556e-02</internalNodes>
          <leafValues>
            1.2439029663801193e-01 -6.8151146173477173e-01</leafValues></_>
        <_>
          <internalNodes>
            0 -1 45 -2.4359603412449360e-04</internalNodes>
          <leafValues>
            -5.6763982772827148e-01 3.0019977688789368e-01</leafValues></_>
        <_>
          <internalNodes>
            0 -1 84 -8.0033587291836739e-03</internalNodes>
          <leafValues>
            2.9852813482284546e-01 -5.9368270635604858e-01</leafValues></_>
        <_>
          <internalNodes>
            0 -1 9 -3.0873238574713469e-03</internalNodes>
          <leafValues>
            -8.8114690780639648e-01 2.2349765896797180e-01</leafValues></_>
        <_>
          <internalNodes>
            0 -1 35 1.2141417246311903e-03</internalNodes>
          <leafValues>
            -3.2097193598747253e-01 6.1921644210815430e-01</leafValues></_></weakClassifiers></_>
    <!-- stage 8 -->
    <_>
      <maxWeakCount>7</maxWeakCount>
      <stageThreshold>-1.8081914186477661e+00</stageThreshold>
      <weakClassifiers>
        <_>
          <internalNodes>
            0 -1 10 3.4806072711944580e-02</internalNodes>
          <leafValues>
            -8.9789122343063354e-01 -4.0776699781417847e-01</leafValues></_>
        <_>
          <internalNodes>
            0 -1 6 -5.0617448985576630e-02</internalNodes>
          <leafValues>
            1.5115846879780293e-02 -7.5473409891128540e-01</leafValues></_>
        <_>
          <internalNodes>
            0 -1 98 8.2992046372964978e-05</internalNodes>
          <leafValues>
            1.1021951586008072e-01 -9.2596268653869629e-01</leafValues></_>
        <_>
          <internalNodes>
            0 -1 86 1.0016458109021187e-02</internalNodes>
          <leafValues>
            -4.3881681561470032e-01 3.3655804395675659e-01</leafValues></_>
        <_>
          <internalNodes>
            0 -1 80 1.5468349738512188e-04</internalNodes>
          <leafValues>
            -3.4651005268096924e-01 4.8881092667579651e-01</leafValues></_>
        <_>
          <internalNodes>
            0 -1 89 5.9006892843171954e-04</internalNodes>
          <leafValues>
            1.6533140838146210e-01 -8.8963383436203003e-01</leafValues></_>
        <_>
          <internalNodes>
            0 -1 74 1.7210261430591345e-03</internalNodes>
          <leafValues>
            -4.0161651372909546e-01 3.5420984029769897e-01</leafValues></_></weakClassifiers></_>
    <!-- stage 9 -->
    <_>
      <maxWeakCount>8</maxWeakCount>
      <stageThreshold>-1.9000138044357300e+00</stageThreshold>
      <weakClassifiers>
        <_>
          <internalNodes>
            0 -1 28 -2.0328590646386147e-02</internalNodes>
          <leafValues>
            4.3999999761581421e-01 -8.3548980951309204e-01</leafValues></_>
        <_>
          <internalNodes>
            0 -1 37 -3.7306070327758789e-01</internalNodes>
          <leafValues>
            2.2575457394123077e-01 -6.4963006973266602e-01</leafValues></_>
        <_>
          <internalNodes>
            0 -1 47 1.9422869663685560e-03</internalNodes>
          <leafValues>
            -3.4961071610450745e-01 5.8173263072967529e-01</leafValues></_>
        <_>
          <internalNodes>
            0 -1 3 2.2783817257732153e-03</internalNodes>
          <leafValues>
            2.6915559172630310e-01 -7.2860318422317505e-01</leafValues></_>
        <_>
          <internalNodes>
            0 -1 78 -1.3329911977052689e-02</internalNodes>
          <leafValues>
            5.0927293300628662e-01 -3.8106331229209900e-01</leafValues></_>
        <_>
          <internalNodes>
            0 -1 50 2.1882778673898429e-04</internalNodes>
          <leafValues>
            2.1320891380310059e-01 -8.2065552473068237e-01</leafValues></_>
        <_>
          <internalNodes>
            0 -1 58 -7.5135845690965652e-04</internalNodes>
          <leafValues>
            3.3278658986091614e-01 -4.8246017098426819e-01</leafValues></_>
        <_>
          <internalNodes>
            0 -1 22 -8.0140779027715325e-04</internalNodes>
          <leafValues>
            4.2029836773872375e-01 -4.3295550346374512e-01</leafValues></_></weakClassifiers></_>
    <!-- stage 10 -->
    <_>
      <maxWeakCount>8</maxWeakCount>
      <stageThreshold>-1.6967324018478394e+00</stageThreshold>
      <weakClassifiers>
        <_>
          <internalNodes>
            0 -1 41 -2.2876724600791931e-02</internalNodes>
          <leafValues>
            2.2222222387790680e-01 -8.4126985073089600e-01</leafValues></_>
        <_>
          <internalNodes>
            0 -1 23 -2.5647204369306564e-02</internalNodes>
          <leafValues>
            6.2024913728237152e-02 -7.1060937643051147e-01</leafValues></_>
        <_>
          <internalNodes>
            0 -1 25 -3.7589172279695049e-05</internalNodes>
          <leafValues>
            -7.9295969009399414e-01 1.3097910583019257e-01</leafValues></_>
        <_>
          <internalNodes>
            0 -1 24 1.0000754264183342e-04</internalNodes>
          <leafValues>
            2.3321290314197540e-01 -6.0975986719131470e-01</leafValues></_>
        <_>
          <internalNodes>
            0 -1 77 -3.4791981306625530e-05</internalNodes>
          <leafValues>
            3.2711562514305115e-01 -4.5682898163795471e-01</leafValues></_>
        <_>
          <internalNodes>
            0 -1 52 -3.6847956478595734e-02</internalNodes>
          <leafValues>
            3.1416398286819458e-01 -4.8596420884132385e-01</leafValues></_>
        <_>
          <internalNodes>
            0 -1 31 4.7932000597938895e-05</internalNodes>
          <leafValues>
            2.1350745856761932e-01 -7.8234905004501343e-01</leafValues></_>
        <_>
          <internalNodes>
            0 -1 51 7.5943426054436713e-05</internalNodes>
          <leafValues>
            -3.5666549205780029e-01 3.8452628254890442e-01</leafValues></_></weakClassifiers></_>
    <!-- stage 11 -->
    <_>
      <maxWeakCount>8</maxWeakCount>
      <stageThreshold>-1.9371385574340820e+00</stageThreshold>
      <weakClassifiers>
        <_>
          <internalNodes>
            0 -1 64 1.0448070243000984e-02</internalNodes>
          <leafValues>
            -8.5451018810272217e-01 -1.5789473056793213e-01</leafValues></_>
        <_>
          <internalNodes>
            0 -1 30 -4.8900526016950607e-02</internalNodes>
          <leafValues>
            -5.6992761790752411e-02 -7.4173033237457275e-01</leafValues></_>
        <_>
          <internalNodes>
            0 -1 90 -3.2107207516673952e-05</internalNodes>
          <leafValues>
            -6.6839832067489624e-01 1.5607942640781403e-01</leafValues></_>
        <_>
          <internalNodes>
            0 -1 4 2.2748536139260978e-04</internalNodes>
          <leafValues>
            -4.4155424833297729e-01 3.0822607874870300e-01</leafValues></_>
        <_>
          <internalNodes>
            0 -1 20 -1.1205411283299327e-04</internalNodes>
          <leafValues>
            -5.7854723930358887e-01 2.3558656871318817e-01</leafValues></_>
        <_>
          <internalNodes>
            0 -1 82 1.2565669021569192e-04</internalNodes>
          <leafValues>
            -5.1078414916992188e-01 2.8000333905220032e-01</leafValues></_>
        <_>
          <internalNodes>
            0 -1 62 -3.8145015423651785e-05</internalNodes>
          <leafValues>
            4.1308853030204773e-01 -3.7953084707260132e-01</leafValues></_>
        <_>
          <internalNodes>
            0 -1 15 -1.2888007040601224e-04</internalNodes>
          <leafValues>
            -8.0335432291030884e-01 1.9528861343860626e-01</leafValues></_></weakClassifiers></_>
    <!-- stage 12 -->
    <_>
      <maxWeakCount>8</maxWeakCount>
      <stageThreshold>-2.0368797779083252e+00</stageThreshold>
      <weakClassifiers>
        <_>
          <internalNodes>
            0 -1 16 -6.1469879001379013e-02</internalNodes>
          <leafValues>
            8.5714286565780640e-01 -8.2799631357192993e-01</leafValues></_>
        <_>
          <internalNodes>
            0 -1 39 1.2453902512788773e-02</internalNodes>
          <leafValues>
            -5.5392259359359741e-01 2.0756380259990692e-01</leafValues></_>
        <_>
          <internalNodes>
            0 -1 87 -1.2103002518415451e-02</internalNodes>
          <leafValues>
            3.7479606270790100e-01 -3.9151713252067566e-01</leafValues></_>
        <_>
          <internalNodes>
            0 -1 18 -3.7320722185540944e-05</internalNodes>
          <leafValues>
            -8.3416211605072021e-01 1.7411550879478455e-01</leafValues></_>
        <_>
          <internalNodes>
            0 -1 61 -4.1012855945155025e-04</internalNodes>
          <leafValues>
            2.8644615411758423e-01 -4.6122699975967407e-01</leafValues></_>
        <_>
          <internalNodes>
            0 -1 27 -1.5522750327363610e-03</internalNodes>
          <leafValues>
            3.6051976680755615e-01 -3.9244383573532104e-01</leafValues></_>
        <_>
          <internalNodes>
            0 -1 44 3.9457529055653140e-05</internalNodes>
          <leafValues>
            2.2536110877990723e-01 -6.1031955480575562e-01</leafValues></_>
        <_>
          <internalNodes>
            0 -1 97 5.3235453378874809e-05</internalNodes>
          <leafValues>
            1.9075047969818115e-01 -6.9132536649703979e-01</leafValues></_></weakClassifiers></_>
    <!-- stage 13 -->
    <_>
      <maxWeakCount>8</maxWeakCount>
      <stageThreshold>-1.6370432376861572e+00</stageThreshold>
      <weakClassifiers>
        <_>
          <internalNodes>
            0 -1 55 1.6713857650756836e-02</internalNodes>
          <leafValues>
            -8.2149362564086914e-01 1.</leafValues></_>
        <_>
          <internalNodes>
            0 -1 63 -1.4153895899653435e-03</internalNodes>
          <leafValues>
            -3.6513958126306534e-02 -7.1277618408203125e-01</leafValues></_>
        <_>
          <internalNodes>
            0 -1 19 -1.3030275702476501e-02</internalNodes>
          <leafValues>
            -9.0934532880783081e-01 1.0803641378879547e-01</leafValues></_>
        <_>
          <internalNodes>
            0 -1 5 -3.2202655076980591e-01</internalNodes>
          <leafValues>
            3.9717441797256470e-01 -3.2926893234252930e-01</leafValues></_>
        <_>
          <internalNodes>
            0 -1 11 7.6937817037105560e-02</internalNodes>
          <leafValues>
            1.6613964736461639e-01 -8.3856338262557983e-01</leafValues></_>
        <_>
          <internalNodes>
            0 -1 76 8.9700713753700256e-02</internalNodes>
          <leafValues>
            1.1952473968267441e-01 -8.0113673210144043e-01</leafValues></_>
        <_>
          <internalNodes>
            0 -1 21 -1.4927712982171215e-05</internalNodes>
          <leafValues>
            -4.4407272338867188e-01 2.6986879110336304e-01</leafValues></_>
        <_>
          <internalNodes>
            0 -1 34 2.7553506661206484e-03</internalNodes>
          <leafValues>
            -1.9880369305610657e-01 6.9343292713165283e-01</leafValues></_></weakClassifiers></_>
    <!-- stage 14 -->
    <_>
      <maxWeakCount>7</maxWeakCount>
      <stageThreshold>-1.6370888948440552e+00</stageThreshold>
      <weakClassifiers>
        <_>
          <internalNodes>
            0 -1 69 -9.6600754186511040e-03</internalNodes>
          <leafValues>
            -2.0000000298023224e-01 -8.5714286565780640e-01</leafValues></_>
        <_>
          <internalNodes>
            0 -1 32 -1.8849864602088928e-01</internalNodes>
          <leafValues>
            8.5046745836734772e-02 -6.7821663618087769e-01</leafValues></_>
        <_>
          <internalNodes>
            0 -1 99 -5.5733475164743140e-05</internalNodes>
          <leafValues>
            -5.9861117601394653e-01 1.9083093106746674e-01</leafValues></_>
        <_>
          <internalNodes>
            0 -1 48 4.8365305701736361e-05</internalNodes>
          <leafValues>
            -3.4640836715698242e-01 3.8370192050933838e-01</leafValues></_>
        <_>
          <internalNodes>
            0 -1 91 -5.8124001952819526e-05</internalNodes>
          <leafValues>
            -6.5864545106887817e-01 2.2097136080265045e-01</leafValues></_>
        <_>
          <internalNodes>
            0 -1 57 -1.2212478395667858e-05</internalNodes>
          <leafValues>
            3.3581408858299255e-01 -4.2274096608161926e-01</leafValues></_>
        <_>
          <internalNodes>
            0 -1 68 1.8879566341638565e-03</internalNodes>
          <leafValues>
            -2.9687541723251343e-01 4.3601113557815552e-01</leafValues></_></weakClassifiers></_>
    <!-- stage 15 -->
    <_>
      <maxWeakCount>7</maxWeakCount>
      <stageThreshold>-1.6048101186752319e+00</stageThreshold>
      <weakClassifiers>
        <_>
          <internalNodes>
            0 -1 65 1.3728185556828976e-02</internalNodes>
          <leafValues>
            -8.5234898328781128e-01 -6.2500000000000000e-02</leafValues></_>
        <_>
          <internalNodes>
            0 -1 0 -1.4266583093558438e-05</internalNodes>
          <leafValues>
            -7.8148615360260010e-01 -8.5713244974613190e-02</leafValues></_>
        <_>
          <internalNodes>
            0 -1 42 -2.6253885589540005e-03</internalNodes>
          <leafValues>
            3.3121976256370544e-01 -3.7285235524177551e-01</leafValues></_>
        <_>
          <internalNodes>
            0 -1 96 -1.5514948245254345e-05</internalNodes>
          <leafValues>
            -7.8489965200424194e-01 1.7945364117622375e-01</leafValues></_>
        <_>
          <internalNodes>
            0 -1 46 -1.2966248393058777e-01</internalNodes>
          <leafValues>
            3.7930750846862793e-01 -3.6615076661109924e-01</leafValues></_>
        <_>
          <internalNodes>
            0 -1 85 1.3333660899661481e-04</internalNodes>
          <leafValues>
            -3.1008869409561157e-01 5.4320341348648071e-01</leafValues></_>
        <_>
          <internalNodes>
            0 -1 72 -2.6050976885017008e-05</internalNodes>
          <leafValues>
            3.7376770377159119e-01 -3.6806365847587585e-01</leafValues></_></weakClassifiers></_></stages>
  <features>
    <_>
      <rects>
        <_>
          0 1 6 1 -1.</_>
        <_>
          2 1 2 1 3.</_></rects>
      <tilted>0</tilted></_>
    <_>
      <rects>
        <_>
          0 2 14 20 -1.</_>
        <_>
          7 2 7 20 2.</_></rects>
      <tilted>0</tilted></_>
    <_>
      <rects>
        <_>
          0 2 24 18 -1.</_>
        <_>
          8 2 8 18 3.</_></rects>
      <tilted>0</tilted></_>
    <_>
      <rects>
        <_>
          0 3 1 18 -1.</_>
        <_>
          0 12 1 9 2.</_></rects>
      <tilted>0</tilted></_>
    <_>
      <rects>
        <_>
          0 3 4 20 -1.</_>
        <_>
          0 3 2 10 2.</_>
        <_>
          2 13 2 10 2.</_></rects>
      <tilted>0</tilted></_>
    <_>
      <rects>
        <_>
          0 3 18 21 -1.</_>
        <_>
          9 3 9 21 2.</_></rects>
      <tilted>0</tilted></_>
    <_>
      <rects>
        <_>
          0 4 16 4 -1.</_>
        <_>
          8 4 8 4 2.</_></rects>
      <tilted>0</tilted></_>
    <_>
      <rects>
        <_>
          0 4 24 18 -1.</_>
        <_>
          8 4 8 18 3.</_></rects>
      <tilted>0</tilted></_>
    <_>
      <rects>
        <_>
          0 5 16 3 -1.</_>
        <_>
          8 5 8 3 2.</_></rects>
      <tilted>0</tilted></_>
    <_>
      <rects>
        <_>
          0 8 1 16 -1.</_>
        <_>
          0 16 1 8 2.</_></rects>
      <tilted>0</tilted></_>
    <_>
      <rects>
        <_>
          0 10 8 14 -1.</_>
        <_>
          0 10 4 7 2.</_>
        <_>
          4 17 4 7 2.</_></rects>
      <tilted>0</tilted></_>
    <_>
      <rects>
        <_>
          0 10 12 14 -1.</_>
        <_>
          4 10 4 14 3.</_></rects>
      <tilted>0</tilted></_>
    <_>
      <rects>
        <_>
          0 13 12 11 -1.</_>
        <_>
          6 13 6 11 2.</_></rects>
      <tilted>0</tilted></_>
    <_>
      <rects>
        <_>
          0 18 24 2 -1.</_>
        <_>
          8 18 8 2 3.</_></rects>
      <tilted>0</tilted></_>
    <_>
      <rects>
        <_>
          0 19 3 4 -1.</_>
        <_>
          1 19 1 4 3.</_></rects>
      <tilted>0</tilted></_>
    <_>
      <rects>
        <_>
          0 20 5 4 -1.</_>
        <_>
          0 22 5 2 2.</_></rects>
      <tilted>0</tilted></_>
    <_>
      <rects>
        <_>
          0 21 21 1 -1.</_>
        <_>
          7 21 7 1 3.</_></rects>
      <tilted>0</tilted></_>
    <_>
      <rects>
        <_>
          0 22 3 1 -1.</_>
        <_>
          1 22 1 1 3.</_></rects>
      <tilted>0</tilted></_>
    <_>
      <rects>
        <_>
          0 22 4 2 -1.</_>
        <_>
          0 22 2 1 2.</_>
        <_>
          2 23 2 1 2.</_></rects>
      <tilted>0</tilted></_>
    <_>
      <rects>
        <_>
          0 23 22 1 -1.</_>
        <_>
          11 23 11 1 2.</_></rects>
      <tilted>0</tilted></_>
    <_>
      <rects>
        <_>
          1 0 6 1 -1.</_>
        <_>
          4 0 3 1 2.</_></rects>
      <tilted>0</tilted></_>
    <_>
      <rects>
        <_>
          1 0 21 1 -1.</_>
        <_>
          8 0 7 1 3.</_></rects>
      <tilted>0</tilted></_>
    <_>
      <rects>
        <_>
          1 5 11 3 -1.</_>
        <_>
          1 6 11 1 3.</_></rects>
      <tilted>0</tilted></_>
    <_>
      <rects>
        <_>
          1 13 8 5 -1.</_>
        <_>
          5 13 4 5 2.</_></rects>
      <tilted>0</tilted></_>
    <_>
      <rects>
        <_>
          1 20 1 4 -1.</_>
        <_>
          1 22 1 2 2.</_></rects>
      <tilted>0</tilted></_>
    <_>
      <rects>
        <_>
          1 20 3 4 -1.</_>
        <_>
          1 22 3 2 2.</_></rects>
      <tilted>0</tilted></_>
    <_>
      <rects>
        <_>
          1 22 6 2 -1.</_>
        <_>
          1 22 3 1 2.</_>
        <_>
          4 23 3 1 2.</_></rects>
      <tilted>0</tilted></_>
    <_>
      <rects>
        <_>
          2 3 8 2 -1.</_>
        <_>
          2 4 8 1 2.</_></rects>
      <tilted>0</tilted></_>
    <_>
      <rects>
        <_>
          2 8 6 2 -1.</_>
        <_>
          4 8 2 2 3.</_></rects>
      <tilted>0</tilted></_>
    <_>
      <rects>
        <_>
          2 12 19 12 -1.</_>
        <_>
          2 18 19 6 2.</_></rects>
      <tilted>0</tilted></_>
    <_>
      <rects>
        <_>
          2 14 10 8 -1.</_>
        <_>
          7 14 5 8 2.</_></rects>
      <tilted>0</tilted></_>
    <_>
      <rects>
        <_>
          2 23 3 1 -1.</_>
        <_>
          3 23 1 1 3.</_></rects>
      <tilted>0</tilted></_>
    <_>
      <rects>
        <_>
          3 0 12 24 -1.</_>
        <_>
          9 0 6 24 2.</_></rects>
      <tilted>0</tilted></_>
    <_>
      <rects>
        <_>
          3 2 6 6 -1.</_>
        <_>
          3 2 3 3 2.</_>
        <_>
          6 5 3 3 2.</_></rects>
      <tilted>0</tilted></_>
    <_>
      <rects>
        <_>
          3 2 12 2 -1.</_>
        <_>
          3 2 6 1 2.</_>
        <_>
          9 3 6 1 2.</_></rects>
      <tilted>0</tilted></_>
    <_>
      <rects>
        <_>
          3 8 2 4 -1.</_>
        <_>
          3 8 1 2 2.</_>
        <_>
          4 10 1 2 2.</_></rects>
      <tilted>0</tilted></_>
    <_>
      <rects>
        <_>
          4 0 4 24 -1.</_>
        <_>
          4 8 4 8 3.</_></rects>
      <tilted>0</tilted></_>
    <_>
      <rects>
        <_>
          4 0 18 24 -1.</_>
        <_>
          10 0 6 24 3.</_></rects>
      <tilted>0</tilted></_>
    <_>
      <rects>
        <_>
          4 0 9 8 -1.</_>
        <_>
          4 4 9 4 2.</_></rects>
      <tilted>0</tilted></_>
    <_>
      <rects>
        <_>
          4 4 6 5 -1.</_>
        <_>
          6 4 2 5 3.</_></rects>
      <tilted>0</tilted></_>
    <_>
      <rects>
        <_>
          4 6 4 10 -1.</_>
        <_>
          4 6 2 5 2.</_>
        <_>
          6 11 2 5 2.</_></rects>
      <tilted>0</tilted></_>
    <_>
      <rects>
        <_>
          4 7 4 8 -1.</_>
        <_>
          4 7 2 4 2.</_>
        <_>
          6 11 2 4 2.</_></rects>
      <tilted>0</tilted></_>
    <_>
      <rects>
        <_>
          4 9 17 3 -1.</_>
        <_>
          4 10 17 1 3.</_></rects>
      <tilted>0</tilted></_>
    <_>
      <rects>
        <_>
          4 18 20 6 -1.</_>
        <_>
          4 21 20 3 2.</_></rects>
      <tilted>0</tilted></_>
    <_>
      <rects>
        <_>
          5 0 9 1 -1.</_>
        <_>
          8 0 3 1 3.</_></rects>
      <tilted>0</tilted></_>
    <_>
      <rects>
        <_>
          5 0 18 1 -1.</_>
        <_>
          11 0 6 1 3.</_></rects>
      <tilted>0</tilted></_>
    <_>
      <rects>
        <_>
          5 0 18 10 -1.</_>
        <_>
          11 0 6 10 3.</_></rects>
      <tilted>0</tilted></_>
    <_>
      <rects>
        <_>
          5 6 2 6 -1.</_>
        <_>
          5 6 1 3 2.</_>
        <_>
          6 9 1 3 2.</_></rects>
      <tilted>0</tilted></_>
    <_>
      <rects>
        <_>
          5 10 2 3 -1.</_>
        <_>
          6 10 1 3 2.</_></rects>
      <tilted>0</tilted></_>
    <_>
      <rects>
        <_>
          5 11 3 12 -1.</_>
        <_>
          5 17 3 6 2.</_></rects>
      <tilted>0</tilted></_>
    <_>
      <rects>
        <_>
          6 0 3 1 -1.</_>
        <_>
          7 0 1 1 3.</_></rects>
      <tilted>0</tilted></_>
    <_>
      <rects>
        <_>
          6 14 4 1 -1.</_>
        <_>
          8 14 2 1 2.</_></rects>
      <tilted>0</tilted></_>
    <_>
      <rects>
        <_>
          7 0 12 10 -1.</_>
        <_>
          11 0 4 10 3.</_></rects>
      <tilted>0</tilted></_>
    <_>
      <rects>
        <_>
          7 0 8 4 -1.</_>
        <_>
          7 2 8 2 2.</_></rects>
      <tilted>0</tilted></_>
    <_>
      <rects>
        <_>
          7 1 12 8 -1.</_>
        <_>
          11 1 4 8 3.</_></rects>
      <tilted>0</tilted></_>
    <_>
      <rects>
        <_>
          7 4 11 2 -1.</_>
        <_>
          7 5 11 1 2.</_></rects>
      <tilted>0</tilted></_>
    <_>
      <rects>
        <_>
          7 11 2 5 -1.</_>
        <_>
          8 11 1 5 2.</_></rects>
      <tilted>0</tilted></_>
    <_>
      <rects>
        <_>
          7 15 3 2 -1.</_>
        <_>
          8 15 1 2 3.</_></rects>
      <tilted>0</tilted></_>
    <_>
      <rects>
        <_>
          7 17 2 7 -1.</_>
        <_>
          8 17 1 7 2.</_></rects>
      <tilted>0</tilted></_>
    <_>
      <rects>
        <_>
          7 20 13 4 -1.</_>
        <_>
          7 22 13 2 2.</_></rects>
      <tilted>0</tilted></_>
    <_>
      <rects>
        <_>
          8 11 6 10 -1.</_>
        <_>
          8 16 6 5 2.</_></rects>
      <tilted>0</tilted></_>
    <_>
      <rects>
        <_>
          8 16 2 8 -1.</_>
        <_>
          9 16 1 8 2.</_></rects>
      <tilted>0</tilted></_>
    <_>
      <rects>
        <_>
          9 18 1 2 -1.</_>
        <_>
          9 19 1 1 2.</_></rects>
      <tilted>0</tilted></_>
    <_>
      <rects>
        <_>
          9 18 6 6 -1.</_>
        <_>
          11 18 2 6 3.</_></rects>
      <tilted>0</tilted></_>
    <_>
      <rects>
        <_>
          9 22 5 2 -1.</_>
        <_>
          9 23 5 1 2.</_></rects>
      <tilted>0</tilted></_>
    <_>
      <rects>
        <_>
          9 22 6 2 -1.</_>
        <_>
          9 23 6 1 2.</_></rects>
      <tilted>0</tilted></_>
    <_>
      <rects>
        <_>
          10 0 5 8 -1.</_>
        <_>
          10 4 5 4 2.</_></rects>
      <tilted>0</tilted></_>
    <_>
      <rects>
        <_>
          10 3 14 20 -1.</_>
        <_>
          17 3 7 20 2.</_></rects>
      <tilted>0</tilted></_>
    <_>
      <rects>
        <_>
          10 4 10 2 -1.</_>
        <_>
          10 4 5 1 2.</_>
        <_>
          15 5 5 1 2.</_></rects>
      <tilted>0</tilted></_>
    <_>
      <rects>
        <_>
          10 22 12 2 -1.</_>
        <_>
          10 22 6 1 2.</_>
        <_>
          16 23 6 1 2.</_></rects>
      <tilted>0</tilted></_>
    <_>
      <rects>
        <_>
          12 2 12 17 -1.</_>
        <_>
          18 2 6 17 2.</_></rects>
      <tilted>0</tilted></_>
    <_>
      <rects>
        <_>
          12 3 12 20 -1.</_>
        <_>
          18 3 6 20 2.</_></rects>
      <tilted>0</tilted></_>
    <_>
      <rects>
        <_>
          13 15 2 2 -1.</_>
        <_>
          13 16 2 1 2.</_></rects>
      <tilted>0</tilted></_>
    <_>
      <rects>
        <_>
          13 17 1 4 -1.</_>
        <_>
          13 19 1 2 2.</_></rects>
      <tilted>0</tilted></_>
    <_>
      <rects>
        <_>
          14 6 1 15 -1.</_>
        <_>
          14 11 1 5 3.</_></rects>
      <tilted>0</tilted></_>
    <_>
      <rects>
        <_>
          14 7 10 6 -1.</_>
        <_>
          14 7 5 3 2.</_>
        <_>
          19 10 5 3 2.</_></rects>
      <tilted>0</tilted></_>
    <_>
      <rects>
        <_>
          14 9 10 12 -1.</_>
        <_>
          14 15 10 6 2.</_></rects>
      <tilted>0</tilted></_>
    <_>
      <rects>
        <_>
          14 13 2 2 -1.</_>
        <_>
          15 13 1 2 2.</_></rects>
      <tilted>0</tilted></_>
    <_>
      <rects>
        <_>
          14 18 10 6 -1.</_>
        <_>
          14 18 5 3 2.</_>
        <_>
          19 21 5 3 2.</_></rects>
      <tilted>0</tilted></_>
    <_>
      <rects>
        <_>
          15 0 8 24 -1.</_>
        <_>
          15 8 8 8 3.</_></rects>
      <tilted>0</tilted></_>
    <_>
      <rects>
        <_>
          15 9 4 2 -1.</_>
        <_>
          15 9 2 1 2.</_>
        <_>
          17 10 2 1 2.</_></rects>
      <tilted>0</tilted></_>
    <_>
      <rects>
        <_>
          15 11 2 2 -1.</_>
        <_>
          15 11 1 1 2.</_>
        <_>
          16 12 1 1 2.</_></rects>
      <tilted>0</tilted></_>
    <_>
      <rects>
        <_>
          15 15 9 2 -1.</_>
        <_>
          15 16 9 1 2.</_></rects>
      <tilted>0</tilted></_>
    <_>
      <rects>
        <_>
          16 8 8 10 -1.</_>
        <_>
          20 8 4 10 2.</_></rects>
      <tilted>0</tilted></_>
    <_>
      <rects>
        <_>
          17 3 7 10 -1.</_>
        <_>
          17 8 7 5 2.</_></rects>
      <tilted>0</tilted></_>
    <_>
      <rects>
        <_>
          17 9 1 2 -1.</_>
        <_>
          17 10 1 1 2.</_></rects>
      <tilted>0</tilted></_>
    <_>
      <rects>
        <_>
          18 10 6 5 -1.</_>
        <_>
          21 10 3 5 2.</_></rects>
      <tilted>0</tilted></_>
    <_>
      <rects>
        <_>
          18 10 6 14 -1.</_>
        <_>
          18 10 3 7 2.</_>
        <_>
          21 17 3 7 2.</_></rects>
      <tilted>0</tilted></_>
    <_>
      <rects>
        <_>
          18 11 6 12 -1.</_>
        <_>
          18 11 3 6 2.</_>
        <_>
          21 17 3 6 2.</_></rects>
      <tilted>0</tilted></_>
    <_>
      <rects>
        <_>
          18 23 6 1 -1.</_>
        <_>
          20 23 2 1 3.</_></rects>
      <tilted>0</tilted></_>
    <_>
      <rects>
        <_>
          19 21 3 3 -1.</_>
        <_>
          20 21 1 3 3.</_></rects>
      <tilted>0</tilted></_>
    <_>
      <rects>
        <_>
          19 21 5 3 -1.</_>
        <_>
          19 22 5 1 3.</_></rects>
      <tilted>0</tilted></_>
    <_>
      <rects>
        <_>
          20 20 3 4 -1.</_>
        <_>
          21 20 1 4 3.</_></rects>
      <tilted>0</tilted></_>
    <_>
      <rects>
        <_>
          20 21 3 1 -1.</_>
        <_>
          21 21 1 1 3.</_></rects>
      <tilted>0</tilted></_>
    <_>
      <rects>
        <_>
          21 20 3 2 -1.</_>
        <_>
          22 20 1 2 3.</_></rects>
      <tilted>0</tilted></_>
    <_>
      <rects>
        <_>
          21 20 3 4 -1.</_>
        <_>
          22 20 1 4 3.</_></rects>
      <tilted>0</tilted></_>
    <_>
      <rects>
        <_>
          21 20 3 3 -1.</_>
        <_>
          21 21 3 1 3.</_></rects>
      <tilted>0</tilted></_>
    <_>
      <rects>
        <_>
          22 2 2 2 -1.</_>
        <_>
          23 2 1 2 2.</_></rects>
      <tilted>0</tilted></_>
    <_>
      <rects>
        <_>
          22 19 2 4 -1.</_>
        <_>
          22 19 1 2 2.</_>
        <_>
          23 21 1 2 2.</_></rects>
      <tilted>0</tilted></_>
    <_>
      <rects>
        <_>
          23 9 1 15 -1.</_>
        <_>
          23 14 1 5 3.</_></rects>
      <tilted>0</tilted></_>
    <_>
      <rects>
        <_>
          23 13 1 8 -1.</_>
        <_>
          23 17 1 4 2.</_></rects>
      <tilted>0</tilted></_>
    <_>
      <rects>
        <_>
          23 16 1 6 -1.</_>
        <_>
          23 18 1 2 3.</_></rects>
      <tilted>0</tilted></_></features></cascade>
</opencv_storage>
